<?xml version="1.0"?>
<opencv_storage>
<cascade>
  <stageType>BOOST</stageType>
  <featureType>HAAR</featureType>
  <height>24</height>
  <width>24</width>
  <stageParams>
    <boostType>GAB</boostType>
    <minHitRate>9.9500000476837158e-01</minHitRate>
    <maxFalseAlarm>5.0000000000000000e-01</maxFalseAlarm>
    <weightTrimRate>9.4999998807907104e-01</weightTrimRate>
    <maxDepth>1</maxDepth>
    <maxWeakCount>100</maxWeakCount></stageParams>
  <featureParams>
    <maxCatCount>0</maxCatCount>
    <featSize>1</featSize>
    <mode>BASIC</mode></featureParams>
  <stageNum>7</stageNum>
  <stages>
    <!-- stage 0 -->
    <_>
      <maxWeakCount>1</maxWeakCount>
      <stageThreshold>1.</stageThreshold>
      <weakClassifiers>
        <_>
          <internalNodes>
            0 -1 1 -6.3585370779037476e-02</internalNodes>
          <leafValues>
            1. -1.</leafValues></_></weakClassifiers></_>
    <!-- stage 1 -->
    <_>
      <maxWeakCount>1</maxWeakCount>
      <stageThreshold>1.</stageThreshold>
      <weakClassifiers>
        <_>
          <internalNodes>
            0 -1 2 -2.0853939652442932e-01</internalNodes>
          <leafValues>
            1. -1.</leafValues></_></weakClassifiers></_>
    <!-- stage 2 -->
    <_>
      <maxWeakCount>1</maxWeakCount>
      <stageThreshold>8.7500000000000000e-01</stageThreshold>
      <weakClassifiers>
        <_>
          <internalNodes>
            0 -1 8 1.6665095090866089e-01</internalNodes>
          <leafValues>
            -1. 8.7500000000000000e-01</leafValues></_></weakClassifiers></_>
    <!-- stage 3 -->
    <_>
      <maxWeakCount>2</maxWeakCount>
      <stageThreshold>-2.0018561184406281e-01</stageThreshold>
      <weakClassifiers>
        <_>
          <internalNodes>
            0 -1 6 -2.2093546576797962e-03</internalNodes>
          <leafValues>
            -9.7938144207000732e-01 7.5757575035095215e-01</leafValues></_>
        <_>
          <internalNodes>
            0 -1 7 1.2601747177541256e-02</internalNodes>
          <leafValues>
            -9.5776134729385376e-01 8.6299937963485718e-01</leafValues></_></weakClassifiers></_>
    <!-- stage 4 -->
    <_>
      <maxWeakCount>1</maxWeakCount>
      <stageThreshold>9.3548387289047241e-01</stageThreshold>
      <weakClassifiers>
        <_>
          <internalNodes>
            0 -1 5 -1.5702366828918457e-01</internalNodes>
          <leafValues>
            9.3548387289047241e-01 -1.</leafValues></_></weakClassifiers></_>
    <!-- stage 5 -->
    <_>
      <maxWeakCount>2</maxWeakCount>
      <stageThreshold>-4.3016281723976135e-01</stageThreshold>
      <weakClassifiers>
        <_>
          <internalNodes>
            0 -1 3 -8.5601899772882462e-03</internalNodes>
          <leafValues>
            -9.5833331346511841e-01 6.4705884456634521e-01</leafValues></_>
        <_>
          <internalNodes>
            0 -1 0 -5.8656409382820129e-03</internalNodes>
          <leafValues>
            5.2817052602767944e-01 -1.</leafValues></_></weakClassifiers></_>
    <!-- stage 6 -->
    <_>
      <maxWeakCount>2</maxWeakCount>
      <stageThreshold>-1.5105076134204865e-01</stageThreshold>
      <weakClassifiers>
        <_>
          <internalNodes>
            0 -1 9 9.3310356140136719e-02</internalNodes>
          <leafValues>
            -8.3486241102218628e-01 1.</leafValues></_>
        <_>
          <internalNodes>
            0 -1 4 -3.0542921274900436e-02</internalNodes>
          <leafValues>
            6.8381160497665405e-01 -9.6219313144683838e-01</leafValues></_></weakClassifiers></_></stages>
  <features>
    <_>
      <rects>
        <_>
          0 0 2 18 -1.</_>
        <_>
          0 9 2 9 2.</_></rects>
      <tilted>0</tilted></_>
    <_>
      <rects>
        <_>
          0 0 10 14 -1.</_>
        <_>
          0 0 5 7 2.</_>
        <_>
          5 7 5 7 2.</_></rects>
      <tilted>0</tilted></_>
    <_>
      <rects>
        <_>
          0 0 12 21 -1.</_>
        <_>
          6 0 6 21 2.</_></rects>
      <tilted>0</tilted></_>
    <_>
      <rects>
        <_>
          1 4 4 18 -1.</_>
        <_>
          3 4 2 18 2.</_></rects>
      <tilted>0</tilted></_>
    <_>
      <rects>
        <_>
          3 12 9 4 -1.</_>
        <_>
          6 12 3 4 3.</_></rects>
      <tilted>0</tilted></_>
    <_>
      <rects>
        <_>
          5 4 19 15 -1.</_>
        <_>
          5 9 19 5 3.</_></rects>
      <tilted>0</tilted></_>
    <_>
      <rects>
        <_>
          7 4 4 18 -1.</_>
        <_>
          9 4 2 18 2.</_></rects>
      <tilted>0</tilted></_>
    <_>
      <rects>
        <_>
          8 23 10 1 -1.</_>
        <_>
          13 23 5 1 2.</_></rects>
      <tilted>0</tilted></_>
    <_>
      <rects>
        <_>
          12 6 12 12 -1.</_>
        <_>
          18 6 6 12 2.</_></rects>
      <tilted>0</tilted></_>
    <_>
      <rects>
        <_>
          15 6 6 11 -1.</_>
        <_>
          18 6 3 11 2.</_></rects>
      <tilted>0</tilted></_></features></cascade>
</opencv_storage>
